digraph Tree {
node [shape=box, style="filled", color="black"] ;
0 [label="x1 <= 0.657\nentropy = 1.0\nsamples = 200\nvalue = [100, 100]", fillcolor="#e5813900"] ;
1 [label="x2 <= 1.812\nentropy = 0.281\nsamples = 82\nvalue = [78, 4]", fillcolor="#e58139f2"] ;
0 -> 1 [labeldistance=2.5, labelangle=45, headlabel="True"] ;
2 [label="x1 <= -0.083\nentropy = 0.17\nsamples = 79\nvalue = [77, 2]", fillcolor="#e58139f8"] ;
1 -> 2 ;
3 [label="entropy = 0.0\nsamples = 54\nvalue = [54, 0]", fillcolor="#e58139ff"] ;
2 -> 3 ;
4 [label="entropy = 0.402\nsamples = 25\nvalue = [23, 2]", fillcolor="#e58139e9"] ;
2 -> 4 ;
5 [label="x1 <= 0.313\nentropy = 0.918\nsamples = 3\nvalue = [1, 2]", fillcolor="#399de57f"] ;
1 -> 5 ;
6 [label="entropy = 0.0\nsamples = 1\nvalue = [1, 0]", fillcolor="#e58139ff"] ;
5 -> 6 ;
7 [label="entropy = 0.0\nsamples = 2\nvalue = [0, 2]", fillcolor="#399de5ff"] ;
5 -> 7 ;
8 [label="x2 <= 1.546\nentropy = 0.694\nsamples = 118\nvalue = [22, 96]", fillcolor="#399de5c5"] ;
0 -> 8 [labeldistance=2.5, labelangle=-45, headlabel="False"] ;
9 [label="x2 <= -0.054\nentropy = 0.994\nsamples = 44\nvalue = [20, 24]", fillcolor="#399de52a"] ;
8 -> 9 ;
10 [label="entropy = 0.0\nsamples = 7\nvalue = [7, 0]", fillcolor="#e58139ff"] ;
9 -> 10 ;
11 [label="entropy = 0.935\nsamples = 37\nvalue = [13, 24]", fillcolor="#399de575"] ;
9 -> 11 ;
12 [label="x1 <= 1.212\nentropy = 0.179\nsamples = 74\nvalue = [2, 72]", fillcolor="#399de5f8"] ;
8 -> 12 ;
13 [label="entropy = 0.592\nsamples = 14\nvalue = [2, 12]", fillcolor="#399de5d4"] ;
12 -> 13 ;
14 [label="entropy = 0.0\nsamples = 60\nvalue = [0, 60]", fillcolor="#399de5ff"] ;
12 -> 14 ;
}